digraph Tree {
node [shape=box, style="rounded", color="black", fontname="helvetica"] ;
edge [fontname="helvetica"] ;
0 [label="TMAX_BD <= 68.5\nsquared_error = 325.2\nsamples = 198\nvalue = 66.8"] ;
1 [label="TMAX_BD <= 55.5\nsquared_error = 111.7\nsamples = 104\nvalue = 52.1"] ;
0 -> 1 [labeldistance=2.5, labelangle=45, headlabel="True"] ;
2 [label="TMAX_BD <= 37.5\nsquared_error = 69.9\nsamples = 54\nvalue = 44.5"] ;
1 -> 2 ;
3 [label="squared_error = 64.9\nsamples = 5\nvalue = 28.6"] ;
2 -> 3 ;
4 [label="TMAX_BD <= 47.5\nsquared_error = 24.5\nsamples = 49\nvalue = 47.0"] ;
2 -> 4 ;
5 [label="TMAX_BD <= 44.5\nsquared_error = 9.2\nsamples = 18\nvalue = 42.7"] ;
4 -> 5 ;
6 [label="squared_error = 3.0\nsamples = 10\nvalue = 40.9"] ;
5 -> 6 ;
7 [label="squared_error = 7.0\nsamples = 8\nvalue = 45.2"] ;
5 -> 7 ;
8 [label="TMIN <= 36.0\nsquared_error = 16.6\nsamples = 31\nvalue = 49.5"] ;
4 -> 8 ;
9 [label="squared_error = 14.0\nsamples = 26\nvalue = 48.3"] ;
8 -> 9 ;
10 [label="squared_error = 1.9\nsamples = 5\nvalue = 53.9"] ;
8 -> 10 ;
11 [label="TMAX_BD <= 63.5\nsquared_error = 28.8\nsamples = 50\nvalue = 60.2"] ;
1 -> 11 ;
12 [label="DAY <= 7.0\nsquared_error = 22.0\nsamples = 29\nvalue = 57.2"] ;
11 -> 12 ;
13 [label="squared_error = 17.6\nsamples = 5\nvalue = 50.4"] ;
12 -> 13 ;
14 [label="TMAX_BD <= 59.5\nsquared_error = 8.2\nsamples = 24\nvalue = 58.9"] ;
12 -> 14 ;
15 [label="squared_error = 6.7\nsamples = 14\nvalue = 57.9"] ;
14 -> 15 ;
16 [label="squared_error = 5.5\nsamples = 10\nvalue = 60.8"] ;
14 -> 16 ;
17 [label="TMAX_1d <= 67.5\nsquared_error = 6.2\nsamples = 21\nvalue = 64.6"] ;
11 -> 17 ;
18 [label="TMAX_SF <= 62.0\nsquared_error = 3.9\nsamples = 15\nvalue = 65.5"] ;
17 -> 18 ;
19 [label="squared_error = 2.1\nsamples = 9\nvalue = 66.2"] ;
18 -> 19 ;
20 [label="squared_error = 4.3\nsamples = 6\nvalue = 64.1"] ;
18 -> 20 ;
21 [label="squared_error = 3.6\nsamples = 6\nvalue = 61.9"] ;
17 -> 21 ;
22 [label="TMAX_BD <= 82.5\nsquared_error = 67.3\nsamples = 94\nvalue = 82.7"] ;
0 -> 22 [labeldistance=2.5, labelangle=-45, headlabel="False"] ;
23 [label="TMAX_BD <= 79.5\nsquared_error = 24.7\nsamples = 43\nvalue = 76.1"] ;
22 -> 23 ;
24 [label="TMAX_BD <= 73.5\nsquared_error = 22.2\nsamples = 30\nvalue = 74.2"] ;
23 -> 24 ;
25 [label="squared_error = 16.9\nsamples = 11\nvalue = 71.2"] ;
24 -> 25 ;
26 [label="TMAX_2d <= 75.5\nsquared_error = 18.9\nsamples = 19\nvalue = 75.6"] ;
24 -> 26 ;
27 [label="squared_error = 4.9\nsamples = 7\nvalue = 79.2"] ;
26 -> 27 ;
28 [label="squared_error = 16.7\nsamples = 12\nvalue = 74.0"] ;
26 -> 28 ;
29 [label="squared_error = 4.0\nsamples = 13\nvalue = 80.4"] ;
23 -> 29 ;
30 [label="TMAX_BD <= 86.5\nsquared_error = 31.1\nsamples = 51\nvalue = 88.6"] ;
22 -> 30 ;
31 [label="TMAX_SF <= 68.5\nsquared_error = 22.3\nsamples = 20\nvalue = 83.7"] ;
30 -> 31 ;
32 [label="TMAX_SF <= 64.0\nsquared_error = 9.9\nsamples = 15\nvalue = 85.0"] ;
31 -> 32 ;
33 [label="squared_error = 1.4\nsamples = 5\nvalue = 86.4"] ;
32 -> 33 ;
34 [label="squared_error = 13.2\nsamples = 10\nvalue = 84.1"] ;
32 -> 34 ;
35 [label="squared_error = 37.9\nsamples = 5\nvalue = 79.3"] ;
31 -> 35 ;
36 [label="TMAX_BD <= 94.5\nsquared_error = 14.9\nsamples = 31\nvalue = 91.4"] ;
30 -> 36 ;
37 [label="TMAX_SF <= 66.5\nsquared_error = 7.0\nsamples = 23\nvalue = 89.7"] ;
36 -> 37 ;
38 [label="squared_error = 6.3\nsamples = 14\nvalue = 90.7"] ;
37 -> 38 ;
39 [label="squared_error = 3.9\nsamples = 9\nvalue = 88.1"] ;
37 -> 39 ;
40 [label="squared_error = 3.2\nsamples = 8\nvalue = 96.6"] ;
36 -> 40 ;
}