digraph Tree {
node [shape=box, style="rounded", color="black", fontname="helvetica"] ;
edge [fontname="helvetica"] ;
0 [label="TMAX_1d <= 67.5\nsquared_error = 313.1\nsamples = 170\nvalue = 66.3"] ;
1 [label="TMIN <= 26.5\nsquared_error = 132.6\nsamples = 83\nvalue = 52.7"] ;
0 -> 1 [labeldistance=2.5, labelangle=45, headlabel="True"] ;
2 [label="PRCP <= 0.0\nsquared_error = 92.3\nsamples = 47\nvalue = 46.7"] ;
1 -> 2 ;
3 [label="TMAX_1d <= 43.5\nsquared_error = 51.4\nsamples = 36\nvalue = 49.7"] ;
2 -> 3 ;
4 [label="TMAX_SF <= 61.5\nsquared_error = 42.1\nsamples = 16\nvalue = 45.5"] ;
3 -> 4 ;
5 [label="squared_error = 48.7\nsamples = 9\nvalue = 41.5"] ;
4 -> 5 ;
6 [label="squared_error = 12.4\nsamples = 7\nvalue = 48.8"] ;
4 -> 6 ;
7 [label="TMAX_CLIM <= 50.7\nsquared_error = 30.1\nsamples = 20\nvalue = 53.5"] ;
3 -> 7 ;
8 [label="TMAX_CLIM <= 44.2\nsquared_error = 27.3\nsamples = 15\nvalue = 51.9"] ;
7 -> 8 ;
9 [label="squared_error = 46.2\nsamples = 6\nvalue = 55.0"] ;
8 -> 9 ;
10 [label="squared_error = 7.1\nsamples = 9\nvalue = 50.1"] ;
8 -> 10 ;
11 [label="squared_error = 3.2\nsamples = 5\nvalue = 58.8"] ;
7 -> 11 ;
12 [label="squared_error = 82.1\nsamples = 11\nvalue = 35.4"] ;
2 -> 12 ;
13 [label="PRCP <= 0.1\nsquared_error = 62.6\nsamples = 36\nvalue = 61.4"] ;
1 -> 13 ;
14 [label="TMAX_CLIM <= 58.5\nsquared_error = 33.9\nsamples = 29\nvalue = 63.6"] ;
13 -> 14 ;
15 [label="squared_error = 25.5\nsamples = 13\nvalue = 60.0"] ;
14 -> 15 ;
16 [label="TMAX_2d <= 60.5\nsquared_error = 24.9\nsamples = 16\nvalue = 66.0"] ;
14 -> 16 ;
17 [label="squared_error = 23.2\nsamples = 8\nvalue = 63.9"] ;
16 -> 17 ;
18 [label="squared_error = 10.6\nsamples = 8\nvalue = 69.2"] ;
16 -> 18 ;
19 [label="squared_error = 47.3\nsamples = 7\nvalue = 49.2"] ;
13 -> 19 ;
20 [label="TMAX_1d <= 85.5\nsquared_error = 88.4\nsamples = 87\nvalue = 81.2"] ;
0 -> 20 [labeldistance=2.5, labelangle=-45, headlabel="False"] ;
21 [label="TMAX_CLIM <= 70.4\nsquared_error = 74.4\nsamples = 55\nvalue = 77.2"] ;
20 -> 21 ;
22 [label="TMAX_SF <= 65.5\nsquared_error = 76.8\nsamples = 14\nvalue = 68.7"] ;
21 -> 22 ;
23 [label="squared_error = 63.1\nsamples = 9\nvalue = 71.4"] ;
22 -> 23 ;
24 [label="squared_error = 68.8\nsamples = 5\nvalue = 64.4"] ;
22 -> 24 ;
25 [label="PRCP <= 0.1\nsquared_error = 49.3\nsamples = 41\nvalue = 79.4"] ;
21 -> 25 ;
26 [label="TMIN <= 48.5\nsquared_error = 35.6\nsamples = 34\nvalue = 81.2"] ;
25 -> 26 ;
27 [label="squared_error = 9.5\nsamples = 8\nvalue = 76.9"] ;
26 -> 27 ;
28 [label="TMAX_SF <= 62.5\nsquared_error = 35.5\nsamples = 26\nvalue = 83.0"] ;
26 -> 28 ;
29 [label="squared_error = 24.9\nsamples = 8\nvalue = 77.9"] ;
28 -> 29 ;
30 [label="TMAX_CLIM <= 85.5\nsquared_error = 19.1\nsamples = 18\nvalue = 85.8"] ;
28 -> 30 ;
31 [label="squared_error = 12.2\nsamples = 13\nvalue = 84.5"] ;
30 -> 31 ;
32 [label="squared_error = 12.8\nsamples = 5\nvalue = 91.0"] ;
30 -> 32 ;
33 [label="squared_error = 32.1\nsamples = 7\nvalue = 71.3"] ;
25 -> 33 ;
34 [label="PRCP <= 0.0\nsquared_error = 26.8\nsamples = 32\nvalue = 88.8"] ;
20 -> 34 ;
35 [label="TMAX_CLIM <= 86.3\nsquared_error = 13.8\nsamples = 26\nvalue = 90.4"] ;
34 -> 35 ;
36 [label="TMAX_1d <= 89.5\nsquared_error = 8.6\nsamples = 20\nvalue = 88.8"] ;
35 -> 36 ;
37 [label="squared_error = 6.6\nsamples = 11\nvalue = 87.5"] ;
36 -> 37 ;
38 [label="squared_error = 5.9\nsamples = 9\nvalue = 90.5"] ;
36 -> 38 ;
39 [label="squared_error = 2.4\nsamples = 6\nvalue = 94.7"] ;
35 -> 39 ;
40 [label="squared_error = 16.4\nsamples = 6\nvalue = 81.1"] ;
34 -> 40 ;
}